tree
num_class=1
num_tree_per_iteration=1
label_index=0
max_feature_idx=123
objective=binary sigmoid:1
feature_names=Column_0 Column_1 Column_2 Column_3 Column_4 Column_5 Column_6 Column_7 Column_8 Column_9 Column_10 Column_11 Column_12 Column_13 Column_14 Column_15 Column_16 Column_17 Column_18 Column_19 Column_20 Column_21 Column_22 Column_23 Column_24 Column_25 Column_26 Column_27 Column_28 Column_29 Column_30 Column_31 Column_32 Column_33 Column_34 Column_35 Column_36 Column_37 Column_38 Column_39 Column_40 Column_41 Column_42 Column_43 Column_44 Column_45 Column_46 Column_47 Column_48 Column_49 Column_50 Column_51 Column_52 Column_53 Column_54 Column_55 Column_56 Column_57 Column_58 Column_59 Column_60 Column_61 Column_62 Column_63 Column_64 Column_65 Column_66 Column_67 Column_68 Column_69 Column_70 Column_71 Column_72 Column_73 Column_74 Column_75 Column_76 Column_77 Column_78 Column_79 Column_80 Column_81 Column_82 Column_83 Column_84 Column_85 Column_86 Column_87 Column_88 Column_89 Column_90 Column_91 Column_92 Column_93 Column_94 Column_95 Column_96 Column_97 Column_98 Column_99 Column_100 Column_101 Column_102 Column_103 Column_104 Column_105 Column_106 Column_107 Column_108 Column_109 Column_110 Column_111 Column_112 Column_113 Column_114 Column_115 Column_116 Column_117 Column_118 Column_119 Column_120 Column_121 Column_122 Column_123
feature_infos=[0:7] [0:93] [0:6915948.5] [0:66911523.670000002] [0:125478088.56999999] [0:2000] [0:1080] [0:4060806.29] [0:0.98993688540000002] [0:0.99879651870000008] [0:0.98657199920000005] [0:0.99920546629999996] [0:0.75070766450000004] [0:3429344.1363636362] [0:33526000] [0:2506199.0099999998] [0:2506199.0099999998] [0:5000000] [0:1] [0:1] [0:1] [0:1] [0:1] [0:1] [0:1] [0:1239716.0198019801] [0:1] [0:1] [0:1] [0:1] [0:1] [0:1] [0:1] [0:1] [0:1] [0:1] [0:1] [0:1] [0:1] [0:1] [0:1] [0:1] [0:1] [0:1] [0:1] [0:1] [0:1] [0:1] [0:1] [0:1] [0:1] [0:1] [0:1] [0:1] [0:1] [0:1] [0:1] [0:1] [0:1] [0:1] [0:1] [0:1] [0:1] [0:1] [0:1] [0:1] [0:1] [0:1] [0:1] [0:1] [0:1] [0:1] [0:1] [0:1] [0:1] [0:1] [0:1] [0:1] [0:1] [0:1] [0:1] [0:1] [0:1] [0:1] [0:1] [0:1] [0:1] [0:1] [0:1] [0:1] [0:1] [0:1] [0:1] [0:1] [0:1] [0:1] [0:1] [0:1] [0:1] [0:1] [0:1] [0:1] [0:1] [0:1] [0:1] [0:1] [0:1] [0:1] [0:1] [0:1] none none none none [0:1] [0:1] [0:1] [0:1] [0:1] [0:1] [0:1] [0:1] [0:1] [0:1]

Tree=0
num_leaves=16
num_cat=0
split_feature=25 6 114 25 6 9 8 25 6 108 12 24 0 8 15
split_gain=16371.399113265523 3560.7130726104697 3154.2464352416955 1098.7378805203953 931.84968153651619 847.9704727186147 783.67871729993021 704.30066245089699 691.11769837661677 532.26431254340969 234.92463824988016 152.82665380179344 131.49927714485514 121.13495992537173 75.118909648708723
threshold=0.45456549328941792 9.9999996826552254e-21 9.9999996826552254e-21 0.94705002470570598 1050.0000000000002 0.26593839105000006 0.58365703070000008 44.104852469643589 1017.5000000000001 9.9999996826552254e-21 7.5143000000000022e-05 0.023450000000000002 2.5000000000000004 0.11023646205000003 27015.682000000008
decision_type=2 2 2 2 2 2 2 2 2 2 2 2 2 2 2
left_child=2 7 6 8 5 -4 13 14 -3 -5 -9 -6 -8 -1 -2
right_child=1 3 4 9 11 -7 12 10 -10 -11 -12 -13 -14 -15 -16
leaf_value=-0.59365953373473446 -0.51688957585373285 -0.086642905884972934 -0.087718688158822292 0.34846478731074376 0.27907764223305653 -0.43162895915733096 -0.22101053602260481 -0.4792286124956634 0.37462734663331371 -0.58909085454545451 0.081444679078088014 -0.01759829511825705 0.17441522909256044 -0.44325958737501475 -0.16701455192469042
leaf_count=11678 2056 2373 4473 9389 622 3498 705 287 449 216 852 534 181 2106 170
internal_value=0 0.80363409601766345 -1.1314349948442095 1.0014547130438729 -0.44427338855435083 -0.70000759502664411 -1.7523112038651589 -0.87883797077918158 0.17685572701654645 1.1406989467902433 -0.016333806342982791 0.59295457196552637 -0.33340960894430482 -1.8946083528824444 -1.6041940509858275
internal_count=39589 15792 23797 12427 9127 7971 14670 3365 2822 9605 1139 1156 886 13784 2226
shrinkage=0.3


Tree=1
num_leaves=16
num_cat=0
split_feature=25 119 7 6 6 8 7 96 7 9 8 9 7 11 8
split_gain=7977.4859902119279 2816.7456268471324 1835.4317971830515 788.32611745729264 1280.5593449864389 672.18981485423774 434.28185698786808 377.60198874944496 321.54189340739094 201.21429661545108 198.57880572337217 184.44541520355369 179.63425441255549 60.854736006734015 31.676973705806631
threshold=0.42674934655230101 9.9999996826552254e-21 1258.3300000000002 1050.0000000000002 386.50000000000006 0.26123873975000006 5.5000000000000009 9.9999996826552254e-21 18027.300000000007 0.046574156700000008 0.075660452650000015 0.053895600050000006 0.50500000000000012 0.37114242035000006 0.096949737600000016
decision_type=2 2 2 2 2 2 2 2 2 2 2 2 2 2 2
left_child=1 5 6 4 -4 14 12 8 -3 -5 -8 -7 -2 -9 -1
right_child=2 7 3 9 -6 11 10 13 -10 -11 -12 -13 -14 -15 -16
leaf_value=-0.46416474240735139 -0.56833086588140125 0.10504003714639998 0.19663371859123766 -0.019514359594760056 -0.29756903841942528 -0.025080439135264702 -0.41842543913432523 -0.46163746835201358 -0.1417873948581537 0.3804494110532522 -0.14434686518114676 -0.28720197835587141 0.2838212306571834 0.04814970092882153 -0.37429404058507204
leaf_count=13207 98 3321 8741 239 1495 1062 1804 666 1877 1808 1470 1848 276 51 1626
internal_value=0 -0.82908278003745217 0.55303048798072396 0.70537939828952523 0.53032706710430644 -1.3061104000954702 -0.61967663480481383 0.0099271196866197436 0.12034114373614016 1.2011779599416152 -0.9127766001546207 -0.57323465748091185 0.63280443589419022 -1.3295854257701416 -1.5107954914140849
internal_count=39589 23658 15931 12283 10236 17743 3648 5915 5198 2047 3274 2910 374 717 14833
shrinkage=0.3


Tree=2
num_leaves=16
num_cat=0
split_feature=25 114 114 8 7 8 7 9 8 7 8 8 25 8 72
split_gain=5021.0284547368192 1425.1031604688269 1221.1856970309273 1277.7064153137424 696.4633009497818 428.76284852160802 364.50744478788147 776.65797258174371 340.57698983923547 292.20379228086892 207.06440614199417 152.99384340878305 136.2580430362641 124.02227814133857 11.032362035291499
threshold=0.70554198899520504 9.9999996826552254e-21 9.9999996826552254e-21 0.2936680604500001 28775.860000000004 0.14096895275000002 9788.1100000000024 0.58906566935000015 0.1047160223 81273.250000000015 0.00554993645 0.064598900100000009 0.96695285006792064 0.78880372890000017 9.9999996826552254e-21
decision_type=2 2 2 2 2 2 2 2 2 2 2 2 2 2 2
left_child=1 8 3 11 10 -6 7 -4 14 -5 -3 -2 -8 -10 -1
right_child=2 4 6 9 5 -7 12 -9 13 -11 -12 -13 -14 -15 -16
leaf_value=-0.39996406718593736 -0.43670958723155523 -0.12939680542319079 0.1580844680754436 -0.033559112437897276 -0.40423669778269183 -0.053639808214141473 0.078864730999421706 -0.47991791164707204 -0.23663793349597981 0.26878046034806358 0.068321799345805082 -0.18725210187716806 0.26414171150595328 0.039709526762745979 -0.20712216846237028
leaf_count=11840 2166 1714 2665 1121 2960 1519 664 643 2942 790 4060 1190 4770 406 139
internal_value=0 -0.63363913154811502 0.48486293728091795 -0.18429878281206835 -0.22390588890403695 -0.83068019267397042 0.6860261751552611 0.32789219777975337 -1.1169067667689585 0.49236568590582813 0.070621459081233448 -1.0841874069882962 0.83206420266609982 -0.6204167104791356 -1.3251169265751388
internal_count=39589 25580 14009 5267 10253 4479 8742 3308 15327 1911 5774 3356 5434 3348 11979
shrinkage=0.3


Tree=3
num_leaves=16
num_cat=0
split_feature=119 8 2 96 2 6 8 6 6 6 6 6 9 3 97
split_gain=2473.0097356305569 2505.1270363901149 637.30256685026131 612.50108033439039 413.91266219676686 214.11360636020527 193.62621857071599 191.20120940152177 172.30198012402286 144.30647673037186 134.45471104702949 96.658565310160725 126.37002375749199 75.532496144263348 36.869745031416642
threshold=9.9999996826552254e-21 0.21942271365000002 50315.375000000007 9.9999996826552254e-21 6756.1050000000005 179.50000000000003 0.018926664100000004 1050.0000000000002 543.00000000000011 598.50000000000011 43.500000000000007 1050.0000000000002 0.19011557965000003 4937284.4350000015 9.9999996826552254e-21
decision_type=2 2 2 2 2 2 2 2 2 2 2 2 2 2 2
left_child=1 6 9 4 7 -6 14 -2 -4 -3 -8 12 -5 -13 -1
right_child=3 2 8 11 5 -7 10 -9 -10 -11 -12 13 -14 -15 -16
leaf_value=-0.38175270341962009 -0.031367696936708531 -0.085080476891391713 0.18051826244128621 0.0055182954823365044 0.12513022864108622 0.25104330991821305 -0.10002947392105006 0.1461732201208244 -0.16438457528201905 -0.42108661422457411 -0.29193108932354689 -0.0063618175009106442 -0.51925162681991444 -0.70999577379895873 -0.18445271556475656
leaf_count=12110 4421 3231 2575 106 5147 1886 1814 1190 372 565 4693 271 801 65 342
internal_value=0 -0.46862292861251237 0.17876882959355497 0.34704972839403225 0.40604906674579633 0.56480548136993647 -1.0422953498640444 0.076343885020078689 0.52137576216031112 -0.40790377175590536 -0.7715838734455549 -0.9059690222546245 -1.3134568574493077 -0.26713209074607996 -1.243293073039631
internal_count=39589 25702 6743 13887 12644 7033 18959 5611 2947 3796 6507 1243 907 336 12452
shrinkage=0.3


Tree=4
num_leaves=16
num_cat=0
split_feature=25 119 0 0 8 0 0 114 4 12 25 122 2 120 8
split_gain=1647.1057338686933 915.8233649761512 623.98961446894009 883.18521296935 529.13460685780115 367.70978702257264 508.45796680024978 269.53249847894051 219.66722961242039 117.26592571567696 86.147050330888078 82.066250881525775 73.606121023510411 56.82339414443652 20.697571687076561
threshold=0.77742152057657976 9.9999996826552254e-21 2.5000000000000004 9.9999996826552254e-21 0.14096895275000002 2.5000000000000004 9.9999996826552254e-21 9.9999996826552254e-21 897234.81000000017 0.00040096670000000007 2.3064387645093114 9.9999996826552254e-21 8166.9500000000016 9.9999996826552254e-21 0.0031860430000000004
decision_type=2 2 2 2 2 2 2 2 2 2 2 2 2 2 2
left_child=1 4 3 7 11 6 -3 -2 -5 -6 14 -1 -7 -12 -4
right_child=2 5 10 8 9 12 -8 -9 -10 -11 13 -13 -14 -15 -16
leaf_value=-0.33813914758168845 -0.021616146176630244 0.077330179442457597 -0.036255533520118316 -0.026367842279223345 -0.0069471519724229186 0.2860462056793695 -0.19374819993079251 0.18751312895458397 -0.21405480626994086 -0.19843801716910039 0.20815252761263706 -0.042085955405981798 -0.04778717156023532 0.00070668691259711896 0.30703719615498409
leaf_count=14009 2151 2858 32 3809 2521 622 3446 3375 2366 1755 765 507 167 268 938
internal_value=0 -0.37798452488321094 0.31076244756561583 0.15408674457976967 -0.75213144534878329 0.01607444098258163 -0.13883809035073427 0.48464963050462079 -0.29018679202782088 -0.248124431750154 0.81672154533506913 -1.0817873192187477 0.80018938729001854 0.57067216720110259 1.0060788237472569
internal_count=39589 25885 13704 11701 18792 7093 6304 5526 6175 4276 2003 14516 789 1033 970
shrinkage=0.3


Tree=5
num_leaves=15
num_cat=0
split_feature=8 6 0 0 0 119 6 6 12 3 105 5 3 2
split_gain=1121.9205322901514 919.48267403698878 613.39212337901188 982.62089569169405 191.27327891111906 161.54407637023411 97.662728228938022 67.726456060803912 62.079280124902425 61.67950695690638 122.73455532520734 55.755919693132327 53.120146434361985 16.569829578323493
threshold=0.0033628422500000007 1017.5000000000001 2.5000000000000004 9.9999996826552254e-21 1.5000000000000002 9.9999996826552254e-21 291.50000000000006 1050.0000000000002 0.00067239505000000024 421009.50500000006 9.9999996826552254e-21 1273.5000000000002 107958.03500000002 12823.980000000001
decision_type=2 2 2 2 2 2 2 2 2 2 2 2 2 2
left_child=1 9 3 5 -5 -2 8 -8 -4 10 -1 12 -3 -11
right_child=2 11 6 4 -6 -7 7 -9 -10 13 -12 -13 -14 -15
leaf_value=-0.31644956488401399 0.018045860233820776 -0.42627539981900037 0.21347101684393208 -0.058646613131450906 -0.19191254057855064 0.13642177516883544 -0.075580677897458551 0.1941593735796866 0.060050452523520474 -0.3747714149187456 0.069016835606286631 -0.79761532987123851 0.16307631522692961 -0.49988054571009466
leaf_count=8642 5000 44 2614 8194 5518 4372 705 155 541 2097 157 24 691 835
internal_value=0 -0.69649802161274188 0.11562197861022568 -0.0081900920676469882 -0.35742053974269095 0.31456373927947801 0.56022849321692691 0.078257831430297728 0.64375778920690219 -1.0936934046874713 -0.95362501861203575 0.45599863021538889 0.48992895733514291 -1.394941235586165
internal_count=39589 12490 27099 23084 13712 9372 4015 860 3155 11731 8799 759 735 2932
shrinkage=0.3


Tree=6
num_leaves=16
num_cat=0
split_feature=25 15 12 12 7 11 7 14 12 10 13 116 9 7 114
split_gain=820.4078577018131 359.29378710284243 332.68376473839146 329.63199122280309 393.99506420690454 156.1000943706922 153.54608835095269 132.87058383204538 116.27443643480095 104.44187090269762 125.80477449667944 61.129567099275405 34.094184192703892 29.45440239538641 5.9366226912657112
threshold=0.16440402521967626 2000.0000000000007 0.0013416379000000002 8.6196000000000013e-05 9788.1100000000024 0.15927617310000003 51035.435000000005 100104.04500000001 4.7115500000000007e-05 0.19457205364999999 17173.459403960402 9.9999996826552254e-21 0.027023898300000005 26497.715000000004 9.9999996826552254e-21
decision_type=2 2 2 2 2 2 2 2 2 2 2 2 2 2 2
left_child=1 12 3 4 -2 -5 8 -8 -3 11 -11 -4 14 -14 -1
right_child=2 6 9 5 -6 -7 7 -9 -10 10 -12 -13 13 -15 -16
leaf_value=-0.32552758290029399 -0.21455267704964498 -0.17283018975888825 -0.037165117517305765 0.053354844943853209 0.044880990650346266 0.15379873400459129 -0.32310724711534122 -0.085853594632924607 0.043248329617221276 0.067875753107368264 -0.43863206461758503 -0.31947767031419699 -0.14692351906760701 -0.30820346396366205 -0.49663637129162808
leaf_count=7366 2990 1120 1422 5379 4299 4616 2326 3844 2814 125 691 328 787 1376 106
internal_value=0 -0.43026049015701151 0.14601792092589341 0.20858089659263432 -0.076117386154233482 0.34799316552614379 -0.22359021490960468 -0.51332047868457253 -0.0038017686669611405 -0.43163038631027861 -1.0181186107913447 -0.23324156662924825 -0.94539130198939236 -0.727408132218064 -1.1110450347649299
internal_count=39589 19739 19850 17284 7289 9995 10104 6170 3934 2566 816 1750 9635 2163 7472
shrinkage=0.3


Tree=7
num_leaves=16
num_cat=0
split_feature=25 0 6 12 25 9 101 9 9 9 7 12 7 4 12
split_gain=582.58143282492676 324.70475939937069 439.9286981061191 352.74323659502977 278.68969978143241 212.20346125512305 198.55613469271398 324.74258668621928 122.70488006884483 121.69104130649495 77.291843787377971 64.957887553602347 72.010415448456243 45.1762613538545 36.162052918683457
threshold=0.98454851012818456 2.5000000000000004 1050.0000000000002 4.2660300000000016e-05 1.2556641917457858 0.23885165565000002 9.9999996826552254e-21 0.68046585685000016 0.023251937050000004 0.037994965250000005 10147.295000000002 5.1795600000000009e-05 9788.1100000000024 362296.79500000004 0.00094815580000000017
decision_type=2 2 2 2 2 2 2 2 2 2 2 2 2 2 2
left_child=1 2 3 -1 11 -4 7 -6 13 -8 -10 12 -2 -3 -13
right_child=4 8 5 -5 6 -7 9 -9 10 -11 -12 14 -14 -15 -16
leaf_value=-0.30750960893313495 -0.5591792844478557 -0.11801459110741438 -0.17712618503448238 -0.097578660361586231 0.018849044234379848 0.15695219108290906 -0.20556899306492563 -0.33710556059783148 0.21147346778618945 0.16802970197031475 -0.022390317567426991 0.23045406609179603 0.078242068429853304 0.33306167936404391 0.039932741362720396
leaf_count=11522 88 77 553 11525 8136 1018 203 1203 208 1341 1889 1136 229 273 188
internal_value=0 -0.2459900684064317 -0.35582131933022099 -0.51076464801398314 0.19463298650299327 0.25622414489394546 0.093899745796275733 -0.0079866730647724701 0.28152220633356551 0.46636589391122119 0.092387106499494429 0.62291106937162544 0.014778345570794377 0.95357266744139946 0.70975612672560739
internal_count=39589 27065 24618 23047 12524 1571 10883 9339 2447 1544 2097 1641 317 350 1324
shrinkage=0.3


Tree=8
num_leaves=16
num_cat=0
split_feature=12 0 0 89 24 10 1 7 5 10 14 24 15 25 25
split_gain=399.44483503520348 298.53918417180614 496.99041028458231 172.14221682388813 144.15458484784557 55.764797059947398 53.605454053886334 42.569025671067777 16.983054366949375 35.85669636421521 12.636016678661498 10.841170563582295 12.742332752501795 2.1055453412433565 0.40793897978670657
threshold=7.3313499999999997e-06 2.5000000000000004 9.9999996826552254e-21 9.9999996826552254e-21 0.0010500000000000004 0.039797608050000009 51.500000000000007 1258.3300000000002 873.50000000000011 0.015843097600000005 131998.45500000005 9.9999996826552254e-21 9716.3635000000031 0.94705002470570598 0.58631353249311924
decision_type=2 2 2 2 2 2 2 2 2 2 2 2 2 2 2
left_child=8 2 4 -4 -2 7 -7 -3 11 10 -10 12 -1 -13 -11
right_child=1 5 3 -5 -6 6 -8 -9 9 14 -12 13 -14 -15 -16
leaf_value=-0.31909147602751736 0.092897735303203013 -0.54656693830415992 -0.039670454397842496 -0.1631613873778166 -0.015673283879271083 0.090887035956364118 -0.08664311158375948 0.16326101567368356 -0.38097239596655691 -0.32283375814427767 0.23539895719616155 -0.39499808637200234 -0.023560790769737033 -0.64608131000629532 -0.63713446446393485
leaf_count=7357 6422 29 8812 7486 4876 1915 476 1792 24 51 39 167 54 61 28
internal_value=0 0.034015801954223532 -0.047186785209265537 -0.29538610354151262 0.17598426859939911 0.36262579120423422 0.20983572333554476 0.52759140523081249 -1.0163063648257593 -0.28687623681851493 0.47289011239572015 -1.0796613841769358 -1.0206234952973541 -1.6989777691758319 -1.7612774521459276
internal_count=39589 31808 27596 16298 11298 4212 2391 1821 7781 142 63 7639 7411 228 79
shrinkage=0.3


Tree=9
num_leaves=16
num_cat=0
split_feature=19 101 12 9 6 9 101 9 24 19 123 9 9 1 15
split_gain=326.60097756664896 257.51317791654685 430.04851593659839 188.3612935858406 176.78140101215669 200.33811719756852 189.78895260366986 135.0196311394883 132.89035846613388 118.65699524153879 107.8079411440691 84.53572766320481 75.004657744693503 68.663515139621026 65.84963662621378
threshold=0.24755000000000002 9.9999996826552254e-21 7.2808350000000023e-05 0.67189644064999998 142.50000000000003 0.5450147580000001 9.9999996826552254e-21 0.15534262210000002 0.00035000000000000005 0.99945000000000006 9.9999996826552254e-21 0.16464595085000003 0.11017336840000001 36.500000000000007 9999.9453333333349
decision_type=2 2 2 2 2 2 2 2 2 2 2 2 2 2 2
left_child=1 2 7 -4 5 10 9 -1 12 -6 -2 -8 -3 -10 -7
right_child=4 8 3 -5 6 14 11 -9 13 -11 -12 -13 -14 -15 -16
leaf_value=-0.13043516443411951 0.13354486414656042 -0.05551321359675674 -0.0099156370825507212 -0.3120550062174528 -0.063982511870068787 -0.32506058277199806 -0.078949562467513876 -0.32028207308936779 -0.22473602560579975 -0.35353557713952094 -0.46301755476852713 0.15943135051313168 0.18958304637651224 0.017576655843615511 -0.011788937024846256
leaf_count=9259 4940 284 11088 1183 2480 607 393 4806 365 1112 121 690 888 891 482
internal_value=0 -0.14704605549324326 -0.24717424056559983 -0.082177642359727715 0.20233112978514334 0.34594967412834504 -0.075916728553596644 -0.7335507681258242 0.23261962189490884 -0.39653953868854835 0.42480761709434767 0.31671673763546548 0.49662792394349575 -0.12323376347855867 -0.523855701363932
internal_count=39589 28764 26336 12271 10825 6150 4675 14065 2428 3592 5061 1083 1172 1256 1089
shrinkage=0.3


Tree=10
num_leaves=16
num_cat=0
split_feature=119 16 11 99 3 58 22 12 12 25 122 22 16 99 10
split_gain=270.46246246757983 418.33176579991141 302.74971252240783 211.79340101765902 143.95250119716033 133.27854019873618 128.42781996110193 109.08066957873746 167.97818305087139 98.079430286785211 92.361830245326473 83.868055503487341 83.224060368263224 83.005846174720261 40.819657325384384
threshold=9.9999996826552254e-21 36847.87750000001 0.22090738395000001 9.9999996826552254e-21 1680763.0750000004 9.9999996826552254e-21 0.16815000000000002 0.0014170413000000003 0.00014188045000000004 2.3064387645093114 9.9999996826552254e-21 0.50835000000000008 9999.7885714285731 9.9999996826552254e-21 0.16272096635000002
decision_type=2 2 2 2 2 2 2 2 2 2 2 2 2 2 2
left_child=1 6 3 12 -5 9 10 8 -4 -3 -1 -8 -2 -9 -7
right_child=2 5 7 4 -6 14 11 13 -10 -11 -12 -13 -14 -15 -16
leaf_value=-0.24683541600132469 -0.11116524328564598 0.093083663296657737 0.049245223932207954 -0.088268983251888644 -0.38405424837927082 -0.29994494528709781 0.062196901149187155 0.080920349622184792 0.17971916893021117 -0.05295078258878607 -0.079399518904538016 -0.16211222152951901 0.085678885239854494 -0.18806611987940455 -0.0064065408670684115
leaf_count=14615 609 3728 4096 3193 966 489 1439 346 2278 1418 2344 1576 1741 582 169
internal_value=0 -0.19183227125666899 0.12910536784851087 -0.14296694697114967 -0.42421480592352245 0.1043684030532509 -0.51352551861874896 0.2993639110763367 0.35499141300870568 0.17813302998561412 -0.67060407812843748 -0.12476613762630756 0.1562455134495814 -0.18815459751220676 -0.68520235161741916
internal_count=39589 25778 13811 6509 4159 5804 19974 7302 6374 5146 16959 3015 2350 928 658
shrinkage=0.3


Tree=11
num_leaves=16
num_cat=0
split_feature=25 25 15 2 123 11 1 10 0 5 12 101 12 13 58
split_gain=208.49154511852524 168.55602924229044 167.93969914756309 106.0282915313114 93.619754099401305 87.343594530205294 84.415720459604827 83.111181725779247 77.222763830368422 71.270774647738619 82.180184451917796 69.001766827564666 58.735993041997574 39.872454739826559 24.648763101134676
threshold=0.96695285006792064 3.9787165850932689 2000.0000000000007 284185.10000000003 9.9999996826552254e-21 0.14293534430000002 55.500000000000007 0.015843097600000005 2.5000000000000004 545.50000000000011 0.035811053650000008 9.9999996826552254e-21 2.8515200000000004e-05 5482.2500000000009 9.9999996826552254e-21
decision_type=2 2 2 2 2 2 2 2 2 2 2 2 2 2 2
left_child=2 8 9 4 -3 11 -7 -5 12 10 -1 -4 -2 -11 -10
right_child=1 3 5 7 -6 6 -8 -9 14 13 -12 -13 -14 -15 -16
leaf_value=-0.29335911249736496 -0.082826524653121333 0.014903820304825077 -0.12023852841989595 0.034565407287941913 -0.41247865989260396 0.029003568238708418 -0.14953484080621854 -0.25379030385582096 0.17046902856370169 0.068214618453275325 0.47709936287320781 0.035133133961857473 0.067979882776540684 -0.1437152344791042 -0.060981403538871354
leaf_count=8539 805 4571 5886 261 272 8441 1266 841 1079 481 27 637 4750 1641 92
internal_value=0 0.12388786681641385 -0.15813471930202877 -0.086337560792096563 0.014129045189456197 -0.074596715546666081 0.035057208817666573 -0.54319244042784931 0.26084026978566438 -0.58173182318335381 -0.89240096309216277 -0.27540212737947845 0.17913926811983194 -0.28724529761456613 0.52780527169357516
internal_count=39589 12671 26918 5945 4843 16230 9707 1102 6726 10688 8566 6523 5555 2122 1171
shrinkage=0.3


Tree=12
num_leaves=16
num_cat=0
split_feature=8 7 11 6 58 5 9 19 11 117 6 19 15 99 6
split_gain=196.81595857476094 328.26856744135785 145.83838832984031 168.44561200262737 114.0614409182533 122.06114073854474 124.93389113581421 118.88707545829442 105.05100350426351 94.140367757178993 32.573833452892814 28.01481064778616 25.467548870582846 39.716569694101494 12.854854698159613
threshold=0.042851612599999998 27747.355000000003 0.12144521685000002 1017.5000000000001 9.9999996826552254e-21 942.50000000000011 0.027384610000000004 0.35475000000000007 0.19080078635000006 9.9999996826552254e-21 14.500000000000002 0.82490000000000008 7868.0120000000015 9.9999996826552254e-21 56.500000000000007
decision_type=2 2 2 2 2 2 2 2 2 2 2 2 2 2 2
left_child=1 2 3 -1 5 6 -2 -7 11 -4 -10 -6 14 -14 -3
right_child=4 12 9 -5 8 7 -8 -9 10 -11 -12 -13 13 -15 -16
leaf_value=-0.2354583543680922 0.14030531771661495 -0.42805690580779826 0.045292438825001655 0.022697910564663963 0.032922462269278273 -0.17211843213478734 0.033523916024664889 0.082741755861068064 0.037184156650381703 -0.24095795947101178 -0.34322404056594474 -0.34029041281198302 -0.29687499628874525 -0.03358525654357504 -0.28742833474287405
leaf_count=9792 2514 710 3967 798 646 1538 12153 606 42 1038 761 82 2130 329 2483
internal_value=0 -0.18638200050289602 -0.056479687928581407 -0.38612584901860891 0.10753581312490897 0.1402844412924267 0.18702595048851045 -0.25428127749198132 -0.38597703692738278 0.097629655892437703 -0.9787435152652294 0.017435825676874291 -0.93744933935655927 -0.68599655929243808 -1.147901099725817
internal_count=39589 21247 15595 10590 18342 16811 14667 2144 1531 5005 803 728 5652 2459 3193
shrinkage=0.3


Tree=13
num_leaves=16
num_cat=0
split_feature=96 4 58 25 6 14 12 9 22 23 122 91 25 16 16
split_gain=224.77388834155272 129.62065014038103 110.46285918013798 104.41601939410117 58.049695406116456 54.892607702749501 45.694059339413826 35.179636744830702 33.642955830229027 28.639369550479323 28.169058918110238 26.012918653857614 25.018855832595477 20.906046372761779 18.802623122571973
threshold=9.9999996826552254e-21 20104.855000000007 9.9999996826552254e-21 0.20452305666319492 187.50000000000003 134005.38000000003 0.00017713014999999998 0.90756930675000003 0.50005000000000011 0.16365000000000005 9.9999996826552254e-21 9.9999996826552254e-21 5.9432134234174905 7927.5793421052631 3000.0225000000005
decision_type=2 2 2 2 2 2 2 2 2 2 2 2 2 2 2
left_child=1 10 3 -3 -4 6 7 -2 12 -8 13 -10 -7 -1 -12
right_child=5 2 4 -5 -6 8 9 -9 11 -11 14 -13 -14 -15 -16
leaf_value=-0.35352636214106187 -0.33924562455263235 -0.038671217472217488 0.011116677545903344 0.037236923844050314 -0.17895794740432547 -0.32334007049272656 0.23670665578577921 0.0035162116687147676 0.21236794154320701 -0.49214231360406713 0.33015196300368205 -0.56142463377593321 -0.62554692075675222 0.11211917679832235 -0.41360232404924552
leaf_count=7520 724 10498 764 16051 1841 1306 117 382 64 32 23 31 196 20 20
internal_value=0 0.020949443204533767 0.035033774651934572 0.063501830198578094 -0.36995933064831588 -0.78221894336995446 -0.33277249229531369 -0.67448284963767269 -1.1224663192291693 0.51180448519093413 -0.9255926583926517 0.10994692076649025 -1.2549120321200131 -1.0686536949507097 0.432958734529168
internal_count=39589 36737 29154 26549 2605 2852 1255 1106 1597 149 7583 95 1502 7540 43
shrinkage=0.3


Tree=14
num_leaves=15
num_cat=0
split_feature=91 101 8 25 6 6 1 12 12 6 18 15 25 24
split_gain=114.35303568079217 132.61675192244039 176.69799150125559 109.51780084959633 102.51968865679072 146.7329404182272 102.02408190017772 99.134767575843767 97.676770862824867 80.590651389930201 77.806606799538855 65.301047744800556 54.071203334000742 51.978976102180006
threshold=9.9999996826552254e-21 9.9999996826552254e-21 0.11673983110000001 25.79969322448375 300.50000000000006 1050.0000000000002 59.500000000000007 0.00040965415000000007 0.00020243450000000004 652.50000000000011 0.18855000000000002 71296.431000000026 3.81765958693487 9.9999996826552254e-21
decision_type=2 2 2 2 2 2 2 2 2 2 2 2 2 2
left_child=1 2 8 -4 6 9 10 -7 -1 -6 -2 13 -8 -3
right_child=4 11 3 -5 5 7 12 -9 -10 -11 -12 -13 -14 -15
leaf_value=-0.22377186728099144 0.06467882420060421 0.12287342158121545 0.012792871379576267 -0.28110576798266618 -0.11055403372028313 0.063346191525508092 -0.061225206517587075 -0.21423256543154962 -0.05090255914180828 -0.39116277838042451 -0.092093900870496265 -0.8607678831091824 -0.3750092680831118 -0.027852017032108423
leaf_count=13280 10960 829 3893 417 2496 1444 909 345 2094 884 1023 30 267 718
internal_value=0 -0.15363083776742162 -0.25799969507068626 -0.034261142292387532 0.068193250309419862 -0.15795403546443484 0.14121036322832553 0.080732159044768395 -0.53547678121294562 -0.56348019214744416 0.17926154413582115 0.18829728503675305 -0.42971515346601658 0.21263638309342603
internal_count=39589 21261 19684 4310 18328 5169 13159 1789 15374 3380 11983 1577 1176 1547
shrinkage=0.3


Tree=15
num_leaves=14
num_cat=0
split_feature=12 104 13 6 123 8 74 2 55 23 19 5 8
split_gain=112.37121013644409 100.65749793829904 104.27449651877086 98.133734342746251 73.432762325619848 73.154145716722283 58.340415221730829 56.264437196870801 40.958001682399498 42.744096845331747 34.342997270104718 30.653934486917503 0.34152547456315574
threshold=0.00074394325000000014 9.9999996826552254e-21 24388.212570884454 14.500000000000002 9.9999996826552254e-21 0.0005316889500000001 9.9999996826552254e-21 0.44500000000000006 9.9999996826552254e-21 0.010450000000000003 0.70930000000000015 156.50000000000003 0.064598900100000009
decision_type=2 2 2 2 2 2 2 2 2 2 2 2 2
left_child=1 4 12 7 5 -1 -4 -2 10 -10 -5 -9 -3
right_child=3 2 6 8 -6 -7 -8 11 9 -11 -12 -13 -14
leaf_value=-0.18475065949080463 0.75442295498868772 -0.33261801250264789 -0.074826510511262989 -0.15650540356684364 -0.38585975334199268 0.031577080948921164 0.32180925290547535 0.32990660081551132 0.16049327201820493 -0.24646312415340338 -0.01106552181018034 0.0196689327859258 -0.41261838915570032
leaf_count=8037 22 1240 1490 3506 257 22967 99 58 171 116 509 923 194
internal_value=0 0.057864456382409273 -0.3768826706657471 -0.24193879901663956 0.085385781758980428 0.092143145535808074 -0.12276556700603462 0.25571352025159055 -0.37608815890786901 0.18059468949468746 -0.43955009347056845 0.17536295507911467 -1.1972711223055581
internal_count=39589 34284 3023 5305 31261 31004 1589 1003 4302 287 4015 981 1434
shrinkage=0.3


Tree=16
num_leaves=16
num_cat=0
split_feature=68 73 101 8 6 6 16 7 6 1 101 8 1 22 8
split_gain=102.45113411256413 102.23817664264512 102.89762715502179 168.81659062195743 89.852603922481634 60.443798128740127 55.75241240385494 51.737548048334205 50.714960693409694 47.42004886760617 46.575129809384123 42.585567757735291 32.354691934541854 28.175577400731896 15.413901461760325
threshold=9.9999996826552254e-21 9.9999996826552254e-21 9.9999996826552254e-21 0.0074661556500000012 55.500000000000007 149.50000000000003 10943.245000000001 27051.280000000002 244.50000000000003 55.500000000000007 9.9999996826552254e-21 0.34165780595000006 41.500000000000007 0.29355000000000003 0.010702831100000003
decision_type=2 2 2 2 2 2 2 2 2 2 2 2 2 2 2
left_child=1 2 3 -1 12 6 14 -4 13 -8 -6 -10 -3 -7 -2
right_child=5 4 7 -5 10 8 9 -9 11 -11 -12 -13 -14 -15 -16
leaf_value=-0.13931791094406329 -0.38141877210174729 -0.091036760190014276 0.09501293572687132 0.015535597900590415 -0.27745467821031672 -0.50819203551224557 0.20000896105647187 -0.49206000397923583 -0.20122146053135517 -0.6870921276880203 -0.089893353534919701 0.020798315659368651 0.22855500031208886 -0.17408175199858075 -0.083323604614834804
leaf_count=12609 139 133 2344 19457 1571 500 201 79 1102 29 655 323 136 160 151
internal_value=0 0.02051233690064206 0.049256967661921343 2.0485679879045695e-05 -0.37356112200763686 -0.39811043390836404 0.082811934312495492 0.29771218349702971 -0.59900152172259602 0.52235370996917829 -0.56551046165456764 -0.41717120175283368 0.38746057895317715 -1.2378252825590774 -0.59874040301031139
internal_count=39589 36984 34489 32066 2495 2605 520 2423 2085 230 2226 1425 269 660 290
shrinkage=0.3


Tree=17
num_leaves=16
num_cat=0
split_feature=0 0 1 1 97 4 89 15 1 4 6 6 6 10 15
split_gain=104.80369916393465 139.55729937728464 171.26986937612014 87.983559324373971 77.726755287830599 68.232104140717624 60.527582260209442 52.271524726270314 43.391892905991199 59.070350219125856 27.71818097148104 34.771459135308419 33.072488681820232 25.927973478458313 16.065131912114712
threshold=2.5000000000000004 1.5000000000000002 33.500000000000007 43.500000000000007 9.9999996826552254e-21 3081079.4600000004 9.9999996826552254e-21 5701.9440000000022 44.500000000000007 97024.655000000013 587.50000000000011 96.500000000000014 1050.0000000000002 0.0019500156000000002 1586.999
decision_type=2 2 2 2 2 2 2 2 2 2 2 2 2 2 2
left_child=1 2 4 6 -1 -4 -3 -5 9 14 11 -10 -12 -11 -2
right_child=8 3 5 7 -6 -7 -8 -9 10 13 12 -13 -14 -15 -16
leaf_value=-0.13515742095049363 -0.60103569777170873 0.037622951658625385 0.036767716220415837 -0.34418146478218387 0.11420098670550033 -0.089986734590658438 -0.14329013997489867 -0.13654509213927027 -0.032157668858925202 0.41598887810205237 -0.43570004802050571 0.10754351362662566 0.015124798196645743 0.1080583966367534 -0.13856967987861776
leaf_count=10806 48 1573 15381 1085 303 2175 1647 2353 882 60 151 681 63 2249 132
internal_value=0 -0.043869617826694948 0.017024178911044973 -0.34096061886564522 -0.35035488554407979 0.089823161504789251 -0.10143561149304155 -0.62109435776104149 0.21847845377399339 0.33667844459150909 0.024946456349234813 0.083377793243599244 -0.63223028213641785 0.38353404742780001 -0.72865155735676068
internal_count=39589 35323 28665 6658 11109 17556 3220 3438 4266 2489 1777 1563 214 2309 180
shrinkage=0.3


Tree=18
num_leaves=15
num_cat=0
split_feature=61 105 9 9 68 3 23 119 12 22 1 8 15 7
split_gain=85.674512850550414 72.20691010592887 113.92992846741221 92.550148140502245 73.479532237128211 51.367417874126133 49.060171566538791 45.87096676003749 33.198027501581308 31.316858385419504 29.90998966695409 28.834370178969159 27.336172770811203 18.453406266810703
threshold=9.9999996826552254e-21 9.9999996826552254e-21 0.16615182495000005 0.0033006206500000002 9.9999996826552254e-21 1177430.1300000001 0.38610000000000005 9.9999996826552254e-21 0.00033744855000000009 0.69350000000000012 42.500000000000007 0.016895039600000005 5045.456000000001 201586.19000000003
decision_type=2 2 2 2 2 2 2 2 2 2 2 2 2 2
left_child=1 3 10 5 -5 -1 -4 8 13 11 -3 -9 -10 -2
right_child=7 2 6 4 -6 -7 -8 9 12 -11 -12 -13 -14 -15
leaf_value=-0.43912930125172162 -0.46840344227453617 0.12401461577346126 0.0054404248398257976 0.013115895216171269 -0.10589429361614146 0.04765117724796402 -0.4648079576757646 -0.23587682380610972 0.19745813623947675 -0.64913672499985109 0.33018674467468667 0.10335847292269253 -0.23046660523921911 -0.079772201779375773
leaf_count=7599 677 172 558 27161 2261 104 109 130 101 29 184 163 254 87
internal_value=0 0.031033281277005709 0.41062854539088717 0.010454892059245609 0.021088429863766012 -0.98176210751155246 -0.15309114017860642 -0.54435080318017703 -0.91763446220449429 -0.082030492845085137 0.83532184949196253 0.042926123407576115 -0.3835131335509997 -1.3464344187347606
internal_count=39589 38148 1023 37125 29422 7703 667 1441 1119 322 356 293 355 764
shrinkage=0.3


Tree=19
num_leaves=9
num_cat=0
split_feature=123 30 25 11 96 12 52 25
split_gain=72.341816637398495 64.949607483306323 83.282002315547174 66.23646755776123 99.620934560346612 75.314320695037907 40.460878124426984 21.906977907608397
threshold=9.9999996826552254e-21 9.9999996826552254e-21 0.96695285006792064 0.076023621150000012 9.9999996826552254e-21 0.00074394325000000014 9.9999996826552254e-21 1.6838115874973625
decision_type=2 2 2 2 2 2 2 2
left_child=1 3 6 4 -1 -5 -3 -4
right_child=-2 2 7 5 -6 -7 -8 -9
leaf_value=-0.018904813184585246 -0.3765456940996223 -0.29510079134623124 0.10297034809508372 0.040212039946598353 -0.28395338491041994 -0.041220569357358183 0.045690068709588284 -0.055144262813701314
leaf_count=14235 347 1419 234 16319 1645 4518 183 689
internal_value=0 0.011452721102856835 -0.31210847477806064 0.032750497808631061 -0.11773444489382641 0.082520030440182426 -0.79222144086444812 -0.014061458353242681
internal_count=39589 39242 2525 36717 15880 20837 1602 923
shrinkage=0.3


Tree=20
num_leaves=16
num_cat=0
split_feature=33 25 25 7 13 114 12 16 52 9 100 0 12 95 7
split_gain=72.269196507373664 62.460064560246401 125.04380161178213 82.668046234222899 99.426236530830749 56.559401145033384 39.142967301461795 38.634187914588935 36.862172628223348 43.167216391313659 30.287130813244289 24.616012994455915 24.596343058659766 45.328563496207224 22.890264214397281
threshold=9.9999996826552254e-21 0.96695285006792064 1.4246834825184169 121367.77500000001 16117.523869047653 9.9999996826552254e-21 3.7461150000000003e-05 240725.00000000003 9.9999996826552254e-21 0.037994965250000005 9.9999996826552254e-21 9.9999996826552254e-21 0.00031732915000000003 9.9999996826552254e-21 99969.295000000013
decision_type=2 2 2 2 2 2 2 2 2 2 2 2 2 2 2
left_child=1 3 6 4 -1 -4 -3 -5 9 11 -11 -2 14 -14 -10
right_child=8 2 5 7 -6 -7 -8 -9 12 10 -12 -13 13 -15 -16
leaf_value=-0.091104246350178344 -0.45375936607528616 -0.06799445453349437 -0.062623153740254969 -0.19298439507931306 0.024063088764416193 0.023366489232823046 0.13164764480304311 0.074102837107945102 0.054832626035720339 -0.092169183961525014 0.31361669558127803 -0.17413780321189415 -0.57252033820247128 0.11490443381240893 0.42305186910684295
leaf_count=12493 175 334 3773 2810 9930 5521 1821 157 243 1836 50 287 75 39 45
internal_value=0 0.020233885159910238 0.096105118625166255 -0.076168494041428864 -0.025840554236460592 0.0049642781456378906 0.38322280758884603 -0.51297465319769275 -0.28800906598230064 -0.38774044400074659 -0.26600809087182375 -0.91096077697386557 0.15392585093859004 -0.58833724334629667 0.36658464828651272
internal_count=39589 36839 11449 25390 22423 9294 2155 2967 2750 2348 1886 462 402 114 288
shrinkage=0.3


Tree=21
num_leaves=11
num_cat=0
split_feature=106 25 17 26 58 10 0 19 19 54
split_gain=74.608938778689321 82.334049523679681 61.024548737708898 50.319303151524906 50.453602805773976 47.161022708624657 37.922852025722769 22.216733395692543 18.679062820237334 5.0894200080547023
threshold=9.9999996826552254e-21 2.2373285520632118 3001.0000000000005 9.9999996826552254e-21 9.9999996826552254e-21 0.0021110661000000005 1.5000000000000002 0.23115000000000002 0.99995000000000012 9.9999996826552254e-21
decision_type=2 2 2 2 2 2 2 2 2 2
left_child=2 -2 8 4 -4 -5 7 -3 9 -1
right_child=1 6 3 5 -6 -7 -8 -9 -10 -11
leaf_value=-0.39008024053373946 0.66714171205414685 0.19352199212636784 0.0071949365890142921 0.18084211868477032 -0.085936201976214016 -0.10379610820338737 -0.54955794069324593 -0.11526804617229282 0.11546972076197683 -0.087747486209505718
leaf_count=7559 20 165 26487 153 2611 2449 31 58 24 32
internal_value=0 0.64254807887780496 -0.02648366590424326 -0.019463076751929771 0.0027912242874081139 -0.27197877228144929 0.3331860018670294 0.45281825787497093 -0.99062591008033796 -1.1938587259769033
internal_count=39589 274 39315 31700 29098 2602 254 223 7615 7591
shrinkage=0.3


Tree=22
num_leaves=16
num_cat=0
split_feature=8 119 9 25 5 95 10 4 25 22 25 1 25 8 12
split_gain=63.046963318242334 116.28244213124889 97.209883844042054 83.287746064156849 66.3561018324326 58.051924320996726 55.770352170455268 54.905234259781793 49.480325588072319 66.35549384978124 48.655496171523254 47.024488840047837 37.99009803792687 37.70180027760307 27.478984744126024
threshold=0.58972263810000014 9.9999996826552254e-21 0.066104021050000017 4.7094820517948213 897.50000000000011 9.9999996826552254e-21 0.07082657035000002 398027.01500000007 50.962862137862139 0.57950000000000013 22.895989010989016 34.500000000000007 0.99907521303459279 0.52551963930000012 9.7963800000000012e-05
decision_type=2 2 2 2 2 2 2 2 2 2 2 2 2 2 2
left_child=1 2 7 4 14 6 -3 -1 9 -5 -4 -10 -6 -7 -2
right_child=3 5 10 8 12 13 -8 -9 11 -11 -12 -13 -14 -15 -16
leaf_value=-0.092248610669487044 0.28441506217935059 0.032165327553890503 -0.14060583913447755 -0.095097113854163237 -0.19230467621813818 0.070909544520683279 -0.042643024715882501 0.057647950465897407 0.39096250523822562 -0.61835279692590872 0.011915879033380797 -0.035092431415462401 0.05785201385114689 -0.23725065212924051 0.10770629454835577
leaf_count=9159 131 4569 10138 524 394 3348 4801 2773 36 97 931 222 214 99 2153
internal_value=0 -0.021494331039079835 -0.20703946630202316 0.19241180878741762 0.30634638902523359 0.060786673742548029 -0.010936297747396271 0.029174033459203604 -0.2417408673965793 -0.49386675124585899 -0.38289217194556513 0.31678539430700575 -0.19789391555575273 0.21416450813435772 0.40494828091159751
internal_count=39589 35818 23001 3771 2892 12817 9370 11932 879 621 11069 258 608 3447 2284
shrinkage=0.3


Tree=23
num_leaves=15
num_cat=0
split_feature=7 120 7 4 7 14 19 12 9 15 10 18 17 38
split_gain=69.276611795162793 157.80021021269869 128.15398335334487 95.014787235608537 93.293772229910701 87.960877008673506 137.06699467501195 88.751274938697861 82.950942887493738 79.169666401060255 58.65265687594453 30.873294569009232 22.270601548384178 6.732213773316488
threshold=92150.99500000001 9.9999996826552254e-21 50040.680000000008 930227.65500000014 694302.82500000007 100300.44500000002 0.20875000000000002 0.00015098825000000002 0.24801772660000002 15990.708142857146 0.2676314962500001 0.66185000000000016 698500.00000000035 9.9999996826552254e-21
decision_type=2 2 2 2 2 2 2 2 2 2 2 2 2 2
left_child=1 5 11 -4 8 7 -7 -1 10 -10 -2 -3 13 -6
right_child=4 2 3 -5 12 6 -8 -9 9 -11 -12 -13 -14 -15
leaf_value=-0.018862597133124777 0.11793229151386191 -0.4370640888741662 -0.026475699369240914 -0.29338704466845056 -0.4658803757333605 -0.088475320316248177 0.038353277456473572 0.080087268951258936 -0.24006522353917739 0.14529926298583776 -0.029122170126076936 0.097026446750756154 0.012231635998290963 -0.06700226187117185
leaf_count=11904 3877 1070 3395 1410 400 5772 3189 4339 2568 296 1255 58 32 24
internal_value=0 -0.037973300323943256 -0.43684824378858245 -0.27076232832178854 0.17909389944457346 0.016072791400079126 -0.1053216653079382 0.1284446242919132 0.21949846987453361 -0.36588033152725119 0.29886277575106485 -1.3227074362064584 -1.0727341325463695 -1.4184819960077268
internal_count=39589 31137 5933 4805 8452 25204 8961 16243 7996 2864 5132 1128 456 424
shrinkage=0.3


Tree=24
num_leaves=8
num_cat=0
split_feature=15 123 7 10 10 8 25
split_gain=54.666995848245818 51.252173346885108 68.845343587541748 42.608518415127392 35.418323786993 7.6770005112872397 0.22628282479966799
threshold=300.50000000000006 9.9999996826552254e-21 989.00500000000011 0.0028820230500000003 0.13953418845000001 0.0047786330000000009 0.68334828300581985
decision_type=2 2 2 2 2 2 2
left_child=5 2 4 -4 -2 -1 -7
right_child=1 -3 3 -5 -6 6 -8
leaf_value=-0.21740311642363427 -0.015760233754882509 -0.35379595141028447 0.077835250188892882 -0.0015756457124967425 0.26473696072134323 -0.40173865386694213 -0.67897540540908852
leaf_count=7306 136 343 2551 28971 161 87 34
internal_value=0 0.022706070367388677 0.027397261739969266 0.014386478930988104 0.61222766230677472 -1.3607796811303603 -1.8558008098811323
internal_count=39589 32162 31819 31522 297 7427 121
shrinkage=0.3


Tree=25
num_leaves=15
num_cat=0
split_feature=7 17 114 8 13 7 7 6 17 1 18 16 16 25
split_gain=55.568065159301057 107.99785515141728 87.485595648279869 94.943180983242087 76.948382668072185 64.256242660546178 63.043898068776315 54.09789743289528 45.146923136615953 30.794432930840486 34.287589204304183 33.082965179369353 18.182209314876516 0.058601414155532439
threshold=99969.295000000013 170082.00000000015 9.9999996826552254e-21 0.18359445040000003 18297.954065180103 7200.7050000000008 102974.15000000001 608.50000000000011 326000.00000000023 45.500000000000007 0.081550000000000011 52459.905000000006 630.10500000000013 0.77742152057657976
decision_type=2 2 2 2 2 2 2 2 2 2 2 2 2 2
left_child=1 2 3 -1 12 -4 8 -8 -6 11 -11 -3 -2 -14
right_child=4 9 5 -5 6 -7 7 -9 -10 10 -12 -13 13 -15
leaf_value=-0.20827741758645213 0.3252965026286766 -0.39380214191430085 0.098964465951775507 -0.010261801201662779 0.15801885998086601 0.00049218695828637715 0.030866035930926596 -0.31622331637171797 -0.26763227409654183 -0.30123340400800908 -0.030119269919551488 -0.051086301703034624 -0.31929883570409312 -0.45104562049305724
leaf_count=12577 21 116 1537 2041 1697 13465 4575 388 81 577 165 765 1535 49
internal_value=0 -0.039575648517570734 -0.0054969642513803879 -0.29310381757532267 0.15575105493475452 0.039558484815298049 0.19192620260828136 0.062784422083568506 0.46834497162051419 -0.47504010610010383 -0.76513546570219282 -0.27270254288034013 -1.0094793227331305 -1.1565100560292938
internal_count=39589 31243 29620 14618 8346 15002 6741 4963 1778 1623 742 881 1605 1584
shrinkage=0.3


Tree=26
num_leaves=16
num_cat=0
split_feature=15 15 99 11 11 11 3 3 10 12 10 11 2 13 4
split_gain=54.294301039126587 102.40118994060337 100.39933200480885 80.375748004255357 72.906072356127012 67.030016730087596 65.942628546525043 59.323656415649538 52.618644018046417 75.8785246347081 45.340902243248436 46.93137201250633 38.233983673148863 35.920494905166983 35.317319207310533
threshold=7200.0000000000027 8616.8410000000022 9.9999996826552254e-21 0.090128336449999999 0.5710502085000001 0.085255222249999998 751597.27000000014 751597.27000000014 0.13953418845000001 0.00020243450000000004 0.46695640140000005 0.49424552120000004 18625.845000000005 99167.897142857153 2341820.9300000002
decision_type=2 2 2 2 2 2 2 2 2 2 2 2 2 2 2
left_child=7 5 4 -4 -3 12 -7 8 9 -1 11 -9 -2 -10 -12
right_child=1 2 3 -5 -6 6 -8 10 13 -11 14 -13 -14 -15 -16
leaf_value=-0.14158269490716036 -0.39072613027337794 0.034515515403346353 -0.1985777158035211 -0.03141857031524465 -0.14060755131949579 0.053724221333443546 0.19118047717452066 -0.2603495133202049 0.024639724920935007 0.016589458104900156 0.13605441329188747 -0.021725945303851413 0.021711426028338983 -0.2976314590083059 -0.39911431140728387
leaf_count=10253 527 9276 1555 2102 1138 3301 1232 1897 5569 1651 235 461 160 121 111
internal_value=0 0.050838621318658114 -0.031371150906853627 -0.2697162045834508 0.069116522491824858 0.26586910857916074 0.31281518074280829 -0.11333217834283851 -0.05746689646710635 -0.22543542412456111 -0.45728848612077949 -0.61899463098431007 -0.6227497279661609 0.060348071105297413 0.19093384708212652
internal_count=39589 19291 14071 3657 10414 5220 4533 20298 17594 11904 2704 2358 687 5690 346
shrinkage=0.3


Tree=27
num_leaves=15
num_cat=0
split_feature=73 101 9 12 9 12 53 3 17 11 19 24 12 114
split_gain=44.380148570139127 48.524292834367913 107.82897842613038 95.487299218759532 133.47017019049594 51.925118792040386 43.305741168853388 41.537412860239229 31.872935675289988 32.170929879181756 34.701423538903455 29.997761484591852 21.788248484322747 20.450776671157286
threshold=9.9999996826552254e-21 9.9999996826552254e-21 0.10988063505000002 6.6291750000000004e-05 0.15107394295000001 0.00068453685000000009 9.9999996826552254e-21 49566.295000000006 31537.317000000017 0.21277175295000003 0.6019500000000001 0.37815000000000004 9.407950000000002e-06 9.9999996826552254e-21
decision_type=2 2 2 2 2 2 2 2 2 2 2 2 2 2
left_child=1 3 6 4 -1 -5 -3 -4 12 11 -11 -10 -2 -14
right_child=8 2 7 5 -6 -7 -8 -9 9 10 -12 -13 13 -15
leaf_value=-0.001302071955221558 -0.50449415880971493 -0.047600922677237548 -0.22107368596918861 0.025554498790112647 -0.2192454649208245 -0.04337831551353314 -0.32949629251808416 0.10450417802882074 -0.023740747360695834 -0.19736995823031939 -0.65298805614694133 -0.40109762646839037 -0.28693376536442411 0.030200172695302119
leaf_count=10059 78 565 101 13545 5414 5170 186 2081 550 469 113 154 495 609
internal_value=0 0.019397192858065002 0.18050982644710314 -0.016999552467096522 -0.29320792455079925 0.034206686694585375 -0.34098258965681472 0.31597086347015013 -0.26555442309208716 -0.48891999157722016 -0.89045763990496962 -0.22497111756107677 -0.021647120116790576 0.025006201343809861
internal_count=39589 37121 2933 34188 15473 18715 751 2182 2468 1286 582 704 1182 1104
shrinkage=0.3


Tree=28
num_leaves=15
num_cat=0
split_feature=5 10 23 22 7 8 10 15 7 22 3 13 7 9
split_gain=46.857333135362843 45.810787474916673 49.924949993980377 43.855642286201679 88.568857265941745 59.288574219412439 48.014737588629643 45.01987666509622 42.261893253895643 38.12622770653217 32.650178623581532 29.243896450210045 25.105861863387002 17.831386862883885
threshold=1065.5000000000002 0.0015383417000000002 0.99975000000000014 0.11705 14389.630000000003 0.16167797450000002 0.70313811395000003 630.43800000000022 9788.1100000000024 0.99915000000000009 565434.58500000008 3710.1777941176506 9788.1100000000024 0.013968802500000002
decision_type=2 2 2 2 2 2 2 2 2 2 2 2 2 2
left_child=3 12 11 4 7 -6 8 -1 -5 -8 -4 -3 -2 -14
right_child=1 2 10 6 5 -7 9 -9 -10 -11 -12 -13 13 -15
leaf_value=-0.14063035691272988 -0.46313786330049439 0.24598743495312286 0.26500959183218126 -0.035089666938635154 -0.12851330119910562 -0.019740621976392363 0.36000975809932639 0.025932802980503315 0.046470514813783441 -0.33923196598524719 -0.32705082168972888 -0.15031163753714788 -0.40212490322405692 0.27454155567890448
leaf_count=7919 58 44 116 2456 7221 3328 100 8744 6673 38 90 2616 23 163
internal_value=0 -0.27123726168573803 -0.35809494964579264 0.013922533752290349 -0.044802024896026617 -0.217602534699432 0.10626568353141887 0.058861146790800019 0.087876134102186962 0.93823190461555572 0.53739243517843704 -0.45657974350984615 0.57500701229000084 0.76917601158550686
internal_count=39589 3110 2866 36479 27212 10549 9267 16663 9129 138 206 2660 244 186
shrinkage=0.3


Tree=29
num_leaves=16
num_cat=0
split_feature=0 0 19 58 5 5 16 12 1 1 7 61 8 116 2
split_gain=49.048658779235552 83.005988866575279 63.71815806376307 56.943851764670754 52.490675165102644 46.865172164311694 48.278934732202295 56.437293255191399 41.480270575831412 40.690454435541767 30.279799169587591 28.959119105780658 25.367630285942667 22.872671626683722 12.086072426062884
threshold=2.5000000000000004 1.5000000000000002 0.070950000000000013 9.9999996826552254e-21 371.50000000000006 555.50000000000011 8842.3412500000031 2.4135200000000002e-05 29.500000000000004 36.500000000000007 17124.130000000001 9.9999996826552254e-21 0.38002360820000008 9.9999996826552254e-21 3737.6150000000002
decision_type=2 2 2 2 2 2 2 2 2 2 2 2 2 2 2
left_child=1 3 10 8 -4 6 7 -2 -1 -5 -3 12 -7 -8 -13
right_child=5 2 4 9 -6 11 13 -9 -10 -11 -12 14 -14 -15 -16
leaf_value=-0.089059423982403241 0.76792055932299363 -0.20888429488776644 0.13826886945785277 -0.24694723999955653 -0.064328881319466916 0.14384278534794306 -0.02159322672080017 0.090512065610000747 0.023983947928956934 -0.04079987534547834 -0.069611425569334945 0.097356185134019016 0.04936050864313573 -0.18764327071308148 -0.41805038563409702
leaf_count=8557 20 1548 493 700 2088 1294 1156 317 17849 1566 2520 20 1034 367 60
internal_value=0 -0.018653029528058054 -0.26409602454639092 0.029571287627999057 -0.028056853575190832 0.16908520779242717 -0.032909266898137238 0.51896938789104852 0.058341555857240691 -0.30798981275139115 -0.49855896419824514 0.30268902810221221 0.32533661380886542 -0.15909370687113539 -0.9083245622741275
internal_count=39589 35321 6649 28672 2581 4268 1860 337 26406 2266 4068 2408 2328 1523 80
shrinkage=0.3



feature importances:
Column_25=31
Column_6=31
Column_12=30
Column_8=30
Column_7=29
Column_9=25
Column_0=18
Column_15=15
Column_10=15
Column_1=14
Column_11=12
Column_19=10
Column_5=9
Column_3=9
Column_16=9
Column_4=8
Column_2=8
Column_114=8
Column_22=8
Column_101=8
Column_13=7
Column_119=7
Column_24=6
Column_58=6
Column_123=5
Column_17=5
Column_96=4
Column_14=4
Column_23=4
Column_99=4
Column_122=3
Column_18=3
Column_91=2
Column_105=2
Column_52=2
Column_116=2
Column_97=2
Column_95=2
Column_89=2
Column_73=2
Column_120=2
Column_68=2
Column_61=2
Column_53=1
Column_38=1
Column_117=1
Column_108=1
Column_33=1
Column_106=1
Column_104=1
Column_100=1
Column_54=1
Column_30=1
Column_74=1
Column_72=1
Column_26=1
Column_55=1

pandas_categorical:null
